net
{
}
node Community_transmission
{
states = ( "None" "ATAGI_Low" "ATAGI_Med" "ATAGI_High" "One_percent" "Two_percent" "NSW_200_daily" "NSW_1000_daily" "VIC_1000_daily" "QLD_1000_daily" );
}
node Sex
{
states = ( "Male" "Female" );
}
node AZ
{
states = ( "None" "One" "Two" );
}
node Variant
{
states = ( "Alpha_Wild" "Delta" );
}
node Vac_effectiveness_infection
{
states = ( "Effective" "Not_effective" );
}
node Age
{
states = ( "age_0_9" "age_10_19" "age_20_29" "Age_30_39" "age_40_49" "age_50_59" "age_60_69" "age_70plus" );
}
node Infection_at_10percent
{
states = ( "Yes" "No" );
}
node Vac_effectiveness_Death
{
states = ( "Effective" "Not_effective" );
}
node Infection_at_current_transmission
{
states = ( "Yes" "No" );
}
node Die_from_Covid
{
states = ( "Yes" "No" );
}
node CSVT
{
states = ( "Yes" "No" );
}
node TTS_AZ
{
states = ( "Yes" "No" );
}
node Die_from_TTS_AZ
{
states = ( "Yes" "No" );
}
node PVT_Covid
{
states = ( "Yes" "No" );
}
node PVT
{
states = ( "Yes" "No" );
}
node Die_from_PVT
{
states = ( "Yes" "No" );
}
node Die_from_CSVT
{
states = ( "Yes" "No" );
}
node CSVT_Covid
{
states = ( "Yes" "No" );
}
node Die_from_CSVT_Covid
{
states = ( "Yes" "No" );
}
node Die_from_PVT_Covid
{
states = ( "Yes" "No" );
}
node Input
{
states = ( "State0" "State1" );
}
node Intermediate
{
states = ( "State0" "State1" );
}
node Outcome
{
states = ( "State0" "State1" );
}
potential ( Community_transmission |  )
{
data = (
(0.1 0.1 0.1 0.1 0.1 0.1 0.1 0.1 0.1 0.1)) ;
}
potential ( Sex |  )
{
data = (
(0.5 0.5)) ;
}
potential ( AZ |  )
{
data = (
(0.3 0.35 0.35)) ;
}
potential ( Variant |  )
{
data = (
(0.05 0.95)) ;
}
potential ( Vac_effectiveness_infection | Variant AZ )
{
data = (
(((0.0 1.0)(0.6 0.4)(0.8 0.2))((0.0 1.0)(0.33 0.6699999999999999)(0.61 0.39)))) ;
}
potential ( Age |  )
{
data = (
(0.12387612 0.11988012 0.14085914 0.14585415 0.12787213 0.12187812 0.1048951 0.11488511)) ;
}
potential ( Infection_at_10percent | Variant Age )
{
data = (
(((0.0416611 0.9583389)(0.0702759 0.9297241)(0.1589055 0.8410945)(0.1212599 0.8787401)(0.1005435 0.8994565)(0.0977633 0.9022367)(0.0812794 0.9187206)(0.1126984 0.8873016))((0.09182884 0.90817116)(0.1423347 0.8576653)(0.15400685 0.84599315)(0.11311761 0.88688239)(0.09119044 0.90880956)(0.09033166 0.90966834)(0.05484361 0.94515639)(0.04305606 0.95694394)))) ;
}
potential ( Vac_effectiveness_Death | Variant AZ )
{
data = (
(((0.0 1.0)(0.8 0.2)(0.95 0.05))((0.0 1.0)(0.69 0.31)(0.9 0.1)))) ;
}
potential ( Infection_at_current_transmission | Infection_at_10percent Vac_effectiveness_infection Community_transmission )
{
data = (
((((0.0 1.0)(0.0 1.0)(0.0 1.0)(0.0 1.0)(0.0 1.0)(0.0 1.0)(0.0 1.0)(0.0 1.0)(0.0 1.0)(0.0 1.0))((0.0 1.0)(0.00471 0.99529)(0.04469 0.95531)(0.5759 0.4241)(0.1 0.9)(0.2 0.8)(0.04455 0.95545)(0.22276 0.7772399999999999)(0.27289 0.7271099999999999)(0.35067 0.64933)))(((0.0 1.0)(0.0 1.0)(0.0 1.0)(0.0 1.0)(0.0 1.0)(0.0 1.0)(0.0 1.0)(0.0 1.0)(0.0 1.0)(0.0 1.0))((0.0 1.0)(0.0 1.0)(0.0 1.0)(0.0 1.0)(0.0 1.0)(0.0 1.0)(0.0 1.0)(0.0 1.0)(0.0 1.0)(0.0 1.0))))) ;
}
potential ( Die_from_Covid | Infection_at_current_transmission Vac_effectiveness_Death Sex Age )
{
data = (
(((((0.0 1.0)(0.0 1.0)(0.0 1.0)(0.0 1.0)(0.0 1.0)(0.0 1.0)(0.0 1.0)(0.0 1.0))((0.0 1.0)(0.0 1.0)(0.0 1.0)(0.0 1.0)(0.0 1.0)(0.0 1.0)(0.0 1.0)(0.0 1.0)))(((0.0 1.0)(0.00030321 0.99969679)(0.00032457 0.99967543)(0.00080402 0.99919598)(0.00086505 0.99913495)(0.00374787 0.99625213)(0.01879699 0.98120301)(0.21743389 0.78256611))((0.0 1.0)(0.0 1.0)(0.0 1.0)(0.00044336 0.99955664)(0.00062933 0.99937067)(0.00285919 0.99714081)(0.00806916 0.99193084)(0.1910828 0.8089172))))((((0.0 1.0)(0.0 1.0)(0.0 1.0)(0.0 1.0)(0.0 1.0)(0.0 1.0)(0.0 1.0)(0.0 1.0))((0.0 1.0)(0.0 1.0)(0.0 1.0)(0.0 1.0)(0.0 1.0)(0.0 1.0)(0.0 1.0)(0.0 1.0)))(((0.0 1.0)(0.0 1.0)(0.0 1.0)(0.0 1.0)(0.0 1.0)(0.0 1.0)(0.0 1.0)(0.0 1.0))((0.0 1.0)(0.0 1.0)(0.0 1.0)(0.0 1.0)(0.0 1.0)(0.0 1.0)(0.0 1.0)(0.0 1.0)))))) ;
}
potential ( CSVT | Age )
{
data = (
((3.8e-07 0.99999962)(3.8e-07 0.99999962)(6.4e-07 0.99999936)(6.4e-07 0.99999936)(6.4e-07 0.99999936)(7.5e-07 0.99999925)(7.5e-07 0.99999925)(7.3e-07 0.99999927))) ;
}
potential ( TTS_AZ | AZ Age )
{
data = (
(((0.0 1.0)(0.0 1.0)(0.0 1.0)(0.0 1.0)(0.0 1.0)(0.0 1.0)(0.0 1.0)(0.0 1.0))((2.5e-05 0.999975)(2.5e-05 0.999975)(2.5e-05 0.999975)(2.5e-05 0.999975)(2.5e-05 0.999975)(2.7e-05 0.999973)(1.6e-05 0.999984)(1.85e-05 0.9999815))((1.8e-06 0.9999982)(1.8e-06 0.9999982)(1.8e-06 0.9999982)(1.8e-06 0.9999982)(1.8e-06 0.9999982)(1.8e-06 0.9999982)(1.8e-06 0.9999982)(1.8e-06 0.9999982)))) ;
}
potential ( Die_from_TTS_AZ | TTS_AZ )
{
data = (
((0.05 0.95)(0.0 1.0))) ;
}
potential ( PVT_Covid | Infection_at_current_transmission Sex )
{
data = (
(((0.000482596 0.999517404)(0.000318407 0.999681593))((0.0 1.0)(0.0 1.0)))) ;
}
potential ( PVT | Age )
{
data = (
((0.0 1.0)(0.0 1.0)(2e-07 0.9999998)(2.6e-07 0.99999974)(5.6e-07 0.99999944)(9.1e-07 0.99999909)(1.76e-06 0.99999824)(1.96e-06 0.99999804))) ;
}
potential ( Die_from_PVT | PVT )
{
data = (
((0.27 0.73)(0.0 1.0))) ;
}
potential ( Die_from_CSVT | CSVT )
{
data = (
((0.07 0.93)(0.0 1.0))) ;
}
potential ( CSVT_Covid | Infection_at_current_transmission Sex )
{
data = (
(((2.88732e-05 0.9999711268)(5.41969e-05 0.9999458031))((0.0 1.0)(0.0 1.0)))) ;
}
potential ( Die_from_CSVT_Covid | CSVT_Covid )
{
data = (
((0.174 0.826)(0.0 1.0))) ;
}
potential ( Die_from_PVT_Covid | PVT_Covid )
{
data = (
((0.199 0.801)(0.0 1.0))) ;
}
potential ( Input |  )
{
data = (
(0.5 0.5)) ;
}
potential ( Intermediate |  )
{
data = (
(0.5 0.5)) ;
}
potential ( Outcome |  )
{
data = (
(0.5 0.5)) ;
}
